Language model created by QuickLM on Sat Oct 27 04:19:48 EDT 2018
Copyright (c) 1996-2010 Carnegie Mellon University and Alexander I. Rudnicky

The model is in standard ARPA format, designed by Doug Paul while he was at MITRE.

The code that was used to produce this language model is available in Open Source.
Please visit http://www.speech.cs.cmu.edu/tools/ for more information

The (fixed) discount mass is 0.5. The backoffs are computed using the ratio method.
This model based on a corpus of 13 sentences and 15 words

\data\
ngram 1=15
ngram 2=26
ngram 3=15

\1-grams:
-0.7999 </s> -0.3010
-0.7999 <s> -0.2197
-1.9138 BUILDING -0.2261
-1.9138 FARMLAND -0.2261
-1.9138 FLAT -0.2261
-1.9138 FOOTWAY -0.2261
-1.9138 FOREST -0.2261
-1.9138 GABLED -0.2261
-1.9138 HALF -0.2903
-1.6128 HIPPED -0.2261
-1.9138 RESIDENTIAL -0.2261
-1.9138 ROW -0.2261
-1.9138 SIDEWAY -0.2261
-1.6128 TREE -0.2197
-1.9138 WOOD -0.2261

\2-grams:
-1.4150 <s> BUILDING 0.0000
-1.4150 <s> FARMLAND 0.0000
-1.4150 <s> FLAT 0.0000
-1.4150 <s> FOOTWAY 0.0000
-1.4150 <s> FOREST 0.0000
-1.4150 <s> GABLED 0.0000
-1.4150 <s> HALF 0.0000
-1.4150 <s> HIPPED 0.0000
-1.4150 <s> RESIDENTIAL 0.0000
-1.4150 <s> SIDEWAY 0.0000
-1.1139 <s> TREE 0.0000
-1.4150 <s> WOOD 0.0000
-0.3010 BUILDING </s> -0.3010
-0.3010 FARMLAND </s> -0.3010
-0.3010 FLAT </s> -0.3010
-0.3010 FOOTWAY </s> -0.3010
-0.3010 FOREST </s> -0.3010
-0.3010 GABLED </s> -0.3010
-0.3010 HALF HIPPED 0.0000
-0.3010 HIPPED </s> -0.3010
-0.3010 RESIDENTIAL </s> -0.3010
-0.3010 ROW </s> -0.3010
-0.3010 SIDEWAY </s> -0.3010
-0.6021 TREE </s> -0.3010
-0.6021 TREE ROW 0.0000
-0.3010 WOOD </s> -0.3010

\3-grams:
-0.3010 <s> BUILDING </s>
-0.3010 <s> FARMLAND </s>
-0.3010 <s> FLAT </s>
-0.3010 <s> FOOTWAY </s>
-0.3010 <s> FOREST </s>
-0.3010 <s> GABLED </s>
-0.3010 <s> HALF HIPPED
-0.3010 <s> HIPPED </s>
-0.3010 <s> RESIDENTIAL </s>
-0.3010 <s> SIDEWAY </s>
-0.6021 <s> TREE </s>
-0.6021 <s> TREE ROW
-0.3010 <s> WOOD </s>
-0.3010 HALF HIPPED </s>
-0.3010 TREE ROW </s>

\end\
